digraph Tree {
node [shape=box, style="filled, rounded", color="black", fontname=helvetica] ;
edge [fontname=helvetica] ;
0 [label=<X<SUB>5</SUB> &le; 0.5<br/>mse = 7894.717<br/>samples = 60<br/>value = 300.873>, fillcolor="#e5813963"] ;
1 [label=<X<SUB>1</SUB> &le; 0.5<br/>mse = 6493.099<br/>samples = 49<br/>value = 280.817>, fillcolor="#e5813948"] ;
0 -> 1 [labeldistance=2.5, labelangle=45, headlabel="True"] ;
2 [label=<X<SUB>6</SUB> &le; 0.5<br/>mse = 7682.393<br/>samples = 37<br/>value = 295.008>, fillcolor="#e581395b"] ;
1 -> 2 ;
3 [label=<X<SUB>3</SUB> &le; 0.5<br/>mse = 6092.419<br/>samples = 28<br/>value = 284.916>, fillcolor="#e581394e"] ;
2 -> 3 ;
4 [label=<X<SUB>7</SUB> &le; 0.5<br/>mse = 7145.87<br/>samples = 19<br/>value = 298.79>, fillcolor="#e5813960"] ;
3 -> 4 ;
5 [label=<X<SUB>0</SUB> &le; 0.5<br/>mse = 5714.117<br/>samples = 12<br/>value = 289.522>, fillcolor="#e5813954"] ;
4 -> 5 ;
6 [label=<X<SUB>8</SUB> &le; 0.5<br/>mse = 2385.862<br/>samples = 7<br/>value = 309.981>, fillcolor="#e581396f"] ;
5 -> 6 ;
7 [label=<X<SUB>2</SUB> &le; 0.5<br/>mse = 1032.042<br/>samples = 3<br/>value = 298.38>, fillcolor="#e5813960"] ;
6 -> 7 ;
8 [label=<mse = 0.0<br/>samples = 1<br/>value = 331.9>, fillcolor="#e581398d"] ;
7 -> 8 ;
9 [label=<mse = 705.354<br/>samples = 2<br/>value = 281.62>, fillcolor="#e5813949"] ;
7 -> 9 ;
10 [label=<X<SUB>4</SUB> &le; 0.5<br/>mse = 3224.576<br/>samples = 4<br/>value = 318.682>, fillcolor="#e581397b"] ;
6 -> 10 ;
11 [label=<mse = 4215.626<br/>samples = 3<br/>value = 323.259>, fillcolor="#e5813981"] ;
10 -> 11 ;
12 [label=<mse = -0.0<br/>samples = 1<br/>value = 304.95>, fillcolor="#e5813968"] ;
10 -> 12 ;
13 [label=<X<SUB>8</SUB> &le; 0.5<br/>mse = 8967.255<br/>samples = 5<br/>value = 260.879>, fillcolor="#e581392d"] ;
5 -> 13 ;
14 [label=<mse = 13896.75<br/>samples = 3<br/>value = 281.139>, fillcolor="#e5813949"] ;
13 -> 14 ;
15 [label=<mse = 33.808<br/>samples = 2<br/>value = 230.49>, fillcolor="#e5813905"] ;
13 -> 15 ;
16 [label=<X<SUB>0</SUB> &le; 0.5<br/>mse = 9200.633<br/>samples = 7<br/>value = 314.678>, fillcolor="#e5813976"] ;
4 -> 16 ;
17 [label=<X<SUB>2</SUB> &le; 0.5<br/>mse = 527.243<br/>samples = 5<br/>value = 286.783>, fillcolor="#e5813950"] ;
16 -> 17 ;
18 [label=<mse = 2.116<br/>samples = 2<br/>value = 304.902>, fillcolor="#e5813968"] ;
17 -> 18 ;
19 [label=<mse = 512.588<br/>samples = 3<br/>value = 274.705>, fillcolor="#e5813940"] ;
17 -> 19 ;
20 [label=<mse = 24075.867<br/>samples = 2<br/>value = 384.413>, fillcolor="#e58139d3"] ;
16 -> 20 ;
21 [label=<X<SUB>9</SUB> &le; 0.5<br/>mse = 2604.366<br/>samples = 9<br/>value = 255.629>, fillcolor="#e5813926"] ;
3 -> 21 ;
22 [label=<X<SUB>8</SUB> &le; 0.5<br/>mse = 3403.465<br/>samples = 6<br/>value = 266.696>, fillcolor="#e5813935"] ;
21 -> 22 ;
23 [label=<mse = 4222.721<br/>samples = 3<br/>value = 260.543>, fillcolor="#e581392d"] ;
22 -> 23 ;
24 [label=<mse = 2508.486<br/>samples = 3<br/>value = 272.849>, fillcolor="#e581393e"] ;
22 -> 24 ;
25 [label=<mse = 271.26<br/>samples = 3<br/>value = 233.494>, fillcolor="#e5813909"] ;
21 -> 25 ;
26 [label=<X<SUB>3</SUB> &le; 0.5<br/>mse = 11326.5<br/>samples = 9<br/>value = 326.403>, fillcolor="#e5813985"] ;
2 -> 26 ;
27 [label=<X<SUB>2</SUB> &le; 0.5<br/>mse = 756.931<br/>samples = 6<br/>value = 285.944>, fillcolor="#e581394f"] ;
26 -> 27 ;
28 [label=<X<SUB>4</SUB> &le; 0.5<br/>mse = 395.841<br/>samples = 3<br/>value = 306.11>, fillcolor="#e581396a"] ;
27 -> 28 ;
29 [label=<mse = 0.0<br/>samples = 1<br/>value = 298.56>, fillcolor="#e5813960"] ;
28 -> 29 ;
30 [label=<mse = 551.005<br/>samples = 2<br/>value = 309.886>, fillcolor="#e581396f"] ;
28 -> 30 ;
31 [label=<mse = 304.632<br/>samples = 3<br/>value = 265.777>, fillcolor="#e5813934"] ;
27 -> 31 ;
32 [label=<mse = 22643.892<br/>samples = 3<br/>value = 407.322>, fillcolor="#e58139f2"] ;
26 -> 32 ;
33 [label=<X<SUB>7</SUB> &le; 0.5<br/>mse = 290.707<br/>samples = 12<br/>value = 237.062>, fillcolor="#e581390e"] ;
1 -> 33 ;
34 [label=<X<SUB>8</SUB> &le; 0.5<br/>mse = 277.059<br/>samples = 9<br/>value = 240.45>, fillcolor="#e5813912"] ;
33 -> 34 ;
35 [label=<X<SUB>6</SUB> &le; 0.5<br/>mse = 317.118<br/>samples = 6<br/>value = 238.448>, fillcolor="#e581390f"] ;
34 -> 35 ;
36 [label=<mse = 61.001<br/>samples = 3<br/>value = 240.378>, fillcolor="#e5813912"] ;
35 -> 36 ;
37 [label=<mse = 565.786<br/>samples = 3<br/>value = 236.518>, fillcolor="#e581390d"] ;
35 -> 37 ;
38 [label=<mse = 172.884<br/>samples = 3<br/>value = 244.455>, fillcolor="#e5813918"] ;
34 -> 38 ;
39 [label=<mse = 193.897<br/>samples = 3<br/>value = 226.898>, fillcolor="#e5813900"] ;
33 -> 39 ;
40 [label=<X<SUB>3</SUB> &le; 0.5<br/>mse = 4364.506<br/>samples = 11<br/>value = 390.215>, fillcolor="#e58139db"] ;
0 -> 40 [labeldistance=2.5, labelangle=-45, headlabel="False"] ;
41 [label=<X<SUB>4</SUB> &le; 0.5<br/>mse = 4934.292<br/>samples = 9<br/>value = 398.484>, fillcolor="#e58139e6"] ;
40 -> 41 ;
42 [label=<X<SUB>2</SUB> &le; 0.5<br/>mse = 3271.288<br/>samples = 6<br/>value = 389.03>, fillcolor="#e58139d9"] ;
41 -> 42 ;
43 [label=<mse = 2018.489<br/>samples = 3<br/>value = 380.569>, fillcolor="#e58139ce"] ;
42 -> 43 ;
44 [label=<mse = 4380.904<br/>samples = 3<br/>value = 397.492>, fillcolor="#e58139e4"] ;
42 -> 44 ;
45 [label=<mse = 7724.088<br/>samples = 3<br/>value = 417.391>, fillcolor="#e58139ff"] ;
41 -> 45 ;
46 [label=<mse = 108.118<br/>samples = 2<br/>value = 353.004>, fillcolor="#e58139a9"] ;
40 -> 46 ;
}