digraph Tree {
node [shape=box] ;
0 [label="X[5] <= 0.5\nmse = 7894.717\nsamples = 60\nvalue = 300.873"] ;
1 [label="X[1] <= 0.5\nmse = 6493.099\nsamples = 49\nvalue = 280.817"] ;
0 -> 1 [labeldistance=2.5, labelangle=45, headlabel="True"] ;
2 [label="X[6] <= 0.5\nmse = 7682.393\nsamples = 37\nvalue = 295.008"] ;
1 -> 2 ;
3 [label="X[3] <= 0.5\nmse = 6092.419\nsamples = 28\nvalue = 284.916"] ;
2 -> 3 ;
4 [label="X[7] <= 0.5\nmse = 7145.87\nsamples = 19\nvalue = 298.79"] ;
3 -> 4 ;
5 [label="X[0] <= 0.5\nmse = 5714.117\nsamples = 12\nvalue = 289.522"] ;
4 -> 5 ;
6 [label="X[8] <= 0.5\nmse = 2385.862\nsamples = 7\nvalue = 309.981"] ;
5 -> 6 ;
7 [label="X[2] <= 0.5\nmse = 1032.042\nsamples = 3\nvalue = 298.38"] ;
6 -> 7 ;
8 [label="mse = 0.0\nsamples = 1\nvalue = 331.9"] ;
7 -> 8 ;
9 [label="mse = 705.354\nsamples = 2\nvalue = 281.62"] ;
7 -> 9 ;
10 [label="X[2] <= 0.5\nmse = 3224.576\nsamples = 4\nvalue = 318.682"] ;
6 -> 10 ;
11 [label="mse = 0.0\nsamples = 1\nvalue = 304.95"] ;
10 -> 11 ;
12 [label="mse = 4215.626\nsamples = 3\nvalue = 323.259"] ;
10 -> 12 ;
13 [label="X[9] <= 0.5\nmse = 8967.255\nsamples = 5\nvalue = 260.879"] ;
5 -> 13 ;
14 [label="mse = 33.808\nsamples = 2\nvalue = 230.49"] ;
13 -> 14 ;
15 [label="mse = 13896.75\nsamples = 3\nvalue = 281.139"] ;
13 -> 15 ;
16 [label="X[0] <= 0.5\nmse = 9200.633\nsamples = 7\nvalue = 314.678"] ;
4 -> 16 ;
17 [label="X[4] <= 0.5\nmse = 527.243\nsamples = 5\nvalue = 286.783"] ;
16 -> 17 ;
18 [label="mse = 512.588\nsamples = 3\nvalue = 274.705"] ;
17 -> 18 ;
19 [label="mse = 2.116\nsamples = 2\nvalue = 304.902"] ;
17 -> 19 ;
20 [label="mse = 24075.867\nsamples = 2\nvalue = 384.413"] ;
16 -> 20 ;
21 [label="X[9] <= 0.5\nmse = 2604.366\nsamples = 9\nvalue = 255.629"] ;
3 -> 21 ;
22 [label="X[8] <= 0.5\nmse = 3403.465\nsamples = 6\nvalue = 266.696"] ;
21 -> 22 ;
23 [label="mse = 4222.721\nsamples = 3\nvalue = 260.543"] ;
22 -> 23 ;
24 [label="mse = 2508.486\nsamples = 3\nvalue = 272.849"] ;
22 -> 24 ;
25 [label="mse = 271.26\nsamples = 3\nvalue = 233.494"] ;
21 -> 25 ;
26 [label="X[3] <= 0.5\nmse = 11326.5\nsamples = 9\nvalue = 326.403"] ;
2 -> 26 ;
27 [label="X[2] <= 0.5\nmse = 756.931\nsamples = 6\nvalue = 285.944"] ;
26 -> 27 ;
28 [label="X[4] <= 0.5\nmse = 395.841\nsamples = 3\nvalue = 306.11"] ;
27 -> 28 ;
29 [label="mse = 0.0\nsamples = 1\nvalue = 298.56"] ;
28 -> 29 ;
30 [label="mse = 551.005\nsamples = 2\nvalue = 309.886"] ;
28 -> 30 ;
31 [label="mse = 304.632\nsamples = 3\nvalue = 265.777"] ;
27 -> 31 ;
32 [label="mse = 22643.892\nsamples = 3\nvalue = 407.322"] ;
26 -> 32 ;
33 [label="X[7] <= 0.5\nmse = 290.707\nsamples = 12\nvalue = 237.062"] ;
1 -> 33 ;
34 [label="X[8] <= 0.5\nmse = 277.059\nsamples = 9\nvalue = 240.45"] ;
33 -> 34 ;
35 [label="X[6] <= 0.5\nmse = 317.118\nsamples = 6\nvalue = 238.448"] ;
34 -> 35 ;
36 [label="mse = 61.001\nsamples = 3\nvalue = 240.378"] ;
35 -> 36 ;
37 [label="mse = 565.786\nsamples = 3\nvalue = 236.518"] ;
35 -> 37 ;
38 [label="mse = 172.884\nsamples = 3\nvalue = 244.455"] ;
34 -> 38 ;
39 [label="mse = 193.897\nsamples = 3\nvalue = 226.898"] ;
33 -> 39 ;
40 [label="X[3] <= 0.5\nmse = 4364.506\nsamples = 11\nvalue = 390.215"] ;
0 -> 40 [labeldistance=2.5, labelangle=-45, headlabel="False"] ;
41 [label="X[4] <= 0.5\nmse = 4934.292\nsamples = 9\nvalue = 398.484"] ;
40 -> 41 ;
42 [label="X[1] <= 0.5\nmse = 3271.288\nsamples = 6\nvalue = 389.03"] ;
41 -> 42 ;
43 [label="mse = 4380.904\nsamples = 3\nvalue = 397.492"] ;
42 -> 43 ;
44 [label="mse = 2018.489\nsamples = 3\nvalue = 380.569"] ;
42 -> 44 ;
45 [label="mse = 7724.088\nsamples = 3\nvalue = 417.391"] ;
41 -> 45 ;
46 [label="mse = 108.118\nsamples = 2\nvalue = 353.004"] ;
40 -> 46 ;
}